function [Y,Xf,Af] = myNeuralNetworkFunction(X,~,~)
%MYNEURALNETWORKFUNCTION neural network simulation function.
%
% Generated by Neural Network Toolbox function genFunction, 19-Oct-2022 11:38:24.
%
% [Y] = myNeuralNetworkFunction(X,~,~) takes these arguments:
%
%   X = 1xTS cell, 1 inputs over TS timesteps
%   Each X{1,ts} = Qx60 matrix, input #1 at timestep ts.
%
% and returns:
%   Y = 1xTS cell of 1 outputs over TS timesteps.
%   Each Y{1,ts} = Qx1 matrix, output #1 at timestep ts.
%
% where Q is number of samples (or series) and TS is the number of timesteps.

%#ok<*RPMT0>

% ===== NEURAL NETWORK CONSTANTS =====

% Input 1
x1_step1.xoffset = [1;1;0;0.75;0.25;1;0.731557888454861;1.9921875;0.860175380788547;0.636444691697481;1.06591914006264;1.1548510558976;1.1548510558976;1.96815836099543;2.64672329779508;3.23905219184028;3.8720703125;3.3422288078572;3.1341467066554;143.645957520703;1.01162321652525;1.01162321652525;1.08935249701601;1.15247999376894;0.28108642578125;0.47607421875;0.297077648532901;0.269181926341861;0.00975233800063554;1.02808242240672;1.02808242240672;1.44323387416051;1.5198531649038;0.235580919053819;0.347900390625;0.236392300932349;0.235234801792071;0.00330245993562424;1.00077029540881;1.00077029540881;1.16837097794461;1.17048845800659;0.0207210286458333;0.0244140625;0.0207264642695153;0.0207182767214054;1.84923142447039e-07;1.00026232402719;1.00026232402719;1.15743774251898;1.15810645719379;0.126092868381076;0.179443359375;0.126678138168229;0.125800138990234;0.000267150240263683;1.00464157723324;1.00464157723324;1.41000200659083;1.42046219943917];
x1_step1.gain = [0.133333333333333;0.0909090909090909;0.019047619047619;2.66666666666667;8;2;0.958593189604162;0.401962708537782;0.766015745121348;1.17814161130405;0.00666603458655769;18.4287013594007;18.4287013594007;2.5834989979131;1.50339610483722;0.355166030773926;0.326634768740032;0.342873564304165;0.365449620595036;0.00025538303064223;19.1995456227736;19.1995456227736;6.23652091711342;3.99603906127981;1.29144634002621;0.625821237585943;1.16442945695917;1.453506097241;0.0912247342700319;14.2494852499237;14.2494852499237;0.89763662688971;0.708597611439387;6.3531756614983;0.929852440408627;5.99030436412341;6.57949322147944;14.1934601670065;18.4467181744756;18.4467181744756;0.250577159976725;0.248191947723971;6.34185395233675;1.8554926387316;6.02800988852365;6.55160508328854;100.578488818812;3.59375925860739;3.59375925860739;0.557058618432127;0.343205389290489;6.82484038993267;1.86925270964062;5.78888100417409;7.2269092611888;13.905881398383;12.1149574252281;12.1149574252281;0.794342550912324;0.564512307699008];
x1_step1.ymin = -1;

% Layer 1
b1 = [0.00024182324130776855866;-0.00027801151164336747627;0.046528943691211743783;-0.036504092763428308555;0.00021373070604105689281;0.00023618401083512352979;0.053887630229181734953;-0.00025554367901621418942;-0.00022816867872356018485;-0.00021998561024927400774;-0.00013784249032432329763;0.041983953275138319317;-0.00024117361819664287319;0.096353331595185554015;0.00023049271898931158434;-0.076201569013295250565;-0.058350735437825249075;-0.00023690646134888254312;0.00021616513250040015237;-0.076081922008279317948];
IW1_1 = [0.0027435810739359052859 0.0012171012019739633255 -0.00026272046576246920694 0.0010615339698870401765 -0.0026241753205292111042 0.0055905770444260932325 0.0010299930775787969998 0.00065947325657184335378 0.0010144300953823890288 0.0010058029545650828789 0.00072394620403370458801 0.00078173657858641716449 0.00078173657858643396962 0.0007409456140540271506 0.00095315428147577335553 0.00093673424000917696833 -4.9429116183377945146e-05 0.00077166875335240442402 0.001002814427252720058 0.00097850830612124348358 -5.4487120807926774579e-05 -5.4487120807925216038e-05 -0.001043974417841965702 -0.00082593863444313606742 0.00047259190707716122867 0.0020282680629505633364 0.0005328956129216550798 -0.00054852272838194771065 0.0028316022756524582282 0.00017066748088121361736 0.00017066748088121478288 0.00025911853031921065933 0.0018389319639323462984 -0.0010406785686034195158 0.00010963475162692523765 -0.00078687431930413512249 -0.0011908321697386397685 0.0014779209564091779546 0.00061969010767246382465 0.00061969010767246512569 -0.00023075847833945212933 -0.00021243087086898982058 -0.00081849562261056719049 0.00016141980669218524021 -0.0005043975638162697837 -0.0011166532716842918205 0.00088325846043802759555 0.0007877975068985863848 0.00078779750689858985425 0.0011985027477106910496 0.0010118706087161295857 -0.00081399137410528138708 0.00021178065616087184781 -0.00064629074635066680998 -0.00094087979955136797315 -0.00085859000556729012273 0.0020014045238287854998 0.0020014045238287768262 0.0018276662651585014185 0.0016482666630829609453;-0.0031398022146928014284 -0.0013934875899102824089 0.0003001934466226167963 -0.001213381033667539164 0.003003157835908788157 -0.006397079030320945367 -0.0011779627798210905772 -0.00075406852700740819011 -0.0011601556587554965033 -0.0011503020931956408398 -0.00082739841833129681731 -0.00089455690020515306066 -0.0008945569002049993208 -0.00084806737661418144739 -0.0010908800378220720982 -0.00107127183230412335 5.7006829433637735114e-05 -0.0008824057097279624411 -0.0011468943949241221323 -0.0011191395727222881121 6.2343844503616013515e-05 6.2343844503614861551e-05 0.0011942165216965237688 0.00094494924251508206729 -0.00054009963786457837031 -0.0023210988203916324037 -0.00060919826118157856601 0.00062854706753494836175 -0.0032395623949056811565 -0.00019590740962153197218 -0.00019590740962153349006 -0.00029611360862302169321 -0.0021042424106935010003 0.0011914786934277578605 -0.00012485597271499017575 0.00090114524952468184719 0.0013632724930502061397 -0.0016899696396502153235 -0.00070708248864485173137 -0.00070708248864485053874 0.00026471866407857315992 0.00024384248826245458414 0.00093680077310354862956 -0.00018424054692618160129 0.00057745170295100359693 0.0012779320817453046055 -0.0010091979998355102635 -0.0009000583689693778585 -0.0009000583689693858816 -0.0013713115043581963239 -0.0011571923809618987755 0.00093165904650343894962 -0.00024157933070660431206 0.00073993216308874878041 0.0010768026432019866482 0.00098380654971056660969 -0.0022890497051568105789 -0.0022890497051568101453 -0.0020906698002295153252 -0.0018852133691655229702;0.026078027947556793598 -0.076401726770179062553 -0.034082933364636434914 0.3904529637755468352 0.028922890981174051439 -0.30740164101234801475 -0.083828064873093521836 -0.028917743488763556631 -0.071501538325498548154 -0.098045207809877812921 -0.079562243896921250319 0.053104418027330034524 0.053104418027330221874 0.17417812041273206258 0.17765399043178889404 -0.015462190182006884179 0.065130076011043536166 -0.0055454748362024240335 -0.026168952992166840538 -0.097401656620535681519 0.026620999527010535263 0.026620999527010347913 0.092912523472709632189 0.089301135708800827295 -0.058997192182097119018 -0.15944721249160614951 -0.057428885502232046578 -0.10701635350500066091 0.017929239706526989284 0.036271388282780744894 0.036271388282780980816 -0.18015509589923447975 -0.072838545579282973352 0.0018946039012663221188 -0.054210051795177155443 0.021413587478590449809 -0.0049997859220272588762 0.10026297511701171006 0.13632065909742335785 0.13632065909742421828 -0.090553030292027963943 -0.072297348042691791936 0.050047200384680856633 0.11400599075885259337 0.071410849315646798829 0.033561486204915134957 0.11312181401250048784 0.041933723093142867555 0.041933723093143193683 0.095046028644019828202 0.079455953116833913374 -0.039581529652774692651 0.0025542361697939233722 -0.030600774212391122775 -0.048761916476481634297 -0.020535601838661068225 0.052447916496248470075 0.052447916496248511709 0.042172419001882927025 0.040960663297474254885;-0.13094854490007853953 0.24263866332453493113 0.012690409576164849922 -0.10488656371701882142 -0.13184677390386675966 0.22633401094703892165 0.002590816072318393587 -0.058029105758392721115 -0.005176299860202470543 0.0073060432689832990882 0.050513385818713923969 -0.10666555091547963441 -0.10666555091548074463 -0.089344883308093522856 -0.11687783840506044131 -0.083271066159715689814 -0.16301868921563975046 -0.10424859661303387259 -0.069113666628198233699 0.064457200794811236877 -0.13307213714886240163 -0.13307213714886245715 -0.021546992753395662751 -0.07686637955027578184 0.023989948951876383793 0.11879241137322510413 0.02624518338117069402 -0.014731586265380007539 0.14851142772357378563 -0.035912635167026377148 -0.035912635167022900762 0.10805835641118921586 0.13451440805744466211 -0.001755542412801131295 0.037587444446389152442 0.000623851609452113153 -0.0067943277860865293818 0.030116390288933290315 -0.01120940810914672521 -0.011209408109146765109 0.032109091370448462899 0.02494505489252122829 -0.081194014702168387787 -0.097367502600617786279 -0.069229673627071899866 -0.094638721553272089904 -0.011376895730828378434 0.060085686186717807145 0.060085686186658188168 -0.053429381738503645138 -0.014376295366522507529 -0.13054246164322200197 -0.076626142316599268889 -0.092683560563791525522 -0.14957269109712198474 0.071704656669178051809 0.16957149273942842549 0.1695714927394239846 -0.070554145457053310531 -0.02670288266662198054;0.0024325566038245968747 0.0010787966106641222724 -0.00023318829117053042617 0.0009419742710309816653 -0.0023266837732388370719 0.0049572746888009132371 0.00091364628693059142875 0.00058505812386166870537 0.00089984577880342694195 0.00089218615361049238063 0.00064246539345371215211 0.00069315677627043779767 0.00069315677627043541242 0.00065688799034830183416 0.00084506247300680792378 0.00083094007290752936162 -4.3590338827172991627e-05 0.00068456689504652100745 0.0008895295448240327996 0.00086794547263699536269 -4.8316463108082558832e-05 -4.8316463108084205464e-05 -0.0009259061360679588697 -0.00073245036451069890984 0.00041941486999702175037 0.0017983815513246384412 0.00047283623216066484902 -0.00048590693651428607577 0.0025111213817374492159 0.00015100269763354572843 0.00015100269763354510501 0.00022997259934373230411 0.0016306045922413927706 -0.00092243063993537337177 9.7534758460075159439e-05 -0.00069733195157289690376 -0.0010555861064386680599 0.001311122151866029803 0.00055056610770715845929 0.0005505661077071617119 -0.00020425785449781295447 -0.00018795530618146975735 -0.00072565434868257885134 0.00014338345618844597915 -0.00044710473152582584297 -0.00099005738824181946899 0.00078399550417527401683 0.00069929953105751785358 0.0006992995310575147094 0.0010627833811386229197 0.00089759496771098115728 -0.00072165282654161686925 0.00018819391106805199326 -0.00057286018129911906935 -0.00083419403069007528034 -0.00076060129603549013911 0.0017752636621119555552 0.0017752636621119551215 0.00162098011271333514 0.0014619975696682364474;0.0026813785976060235811 0.0011894310946819130429 -0.00025682202949917271907 0.0010376471295487699805 -0.0025646792476224705357 0.0054639359570070721722 0.0010067375382736647432 0.00064460146963437746533 0.00099152697934514854965 0.00098309301340462787282 0.00070766886789825754912 0.00076402254637222572625 0.00076402254637223602617 0.00072413274851760461338 0.00093153547860786323903 0.00091558855645080747254 -4.8254117437957818736e-05 0.00075426076259903327044 0.00098017067062794059271 0.00095640793672313920669 -5.3253251156996445287e-05 -5.3253251156995320427e-05 -0.0010203704295082380478 -0.00080724619874011764066 0.00046196922806723036536 0.0019822939637664516166 0.00052089509099128834899 -0.00053598665148132007725 0.00276752468508336541 0.00016672483656950137397 0.00016672483656949944951 0.00025329661425053132074 0.0017972724406720502147 -0.0010170214733087998196 0.00010722496013190089355 -0.00076895604970218670374 -0.0011637763177874506978 0.0014445854980094919012 0.0006059006669133537885 0.00060590066691335302956 -0.00022544807036833558922 -0.00020752382921505215766 -0.00079992640362219671196 0.00015782083044705354788 -0.00049293592996997755411 -0.0010913348099392443727 0.00086343348099306843884 0.00077012362439361748377 0.00077012362439362344688 0.0011713644932967773836 0.00098902978224911009854 -0.00079552252089043463089 0.00020707650893907186959 -0.00063160015137979168796 -0.00091954276812141952369 -0.00083897281401663220679 0.0019562011602720554698 0.0019562011602720559035 0.0017863462582338519077 0.0016110323689100659959;-0.15838000211414421381 0.14736643487866488145 0.10669773221171717503 0.04247585247528642971 0.1339136039822518276 0.16534764475187549437 0.096004495762548408555 0.10078127496725916568 0.089151518461058565368 0.1035845205647087236 0.029353066476589990269 -0.030615140623730573155 -0.030615140623730750097 0.048733720190814837359 0.029135834577858711614 0.088663857523711503417 0.056569545508265803302 0.081548824139543341083 0.092807028252342785302 0.029923354096806846492 -0.044193177863624311108 -0.044193177863624241719 -0.066909589506077588039 -0.071518767746136663321 0.021775689666023032715 0.025907085929876807334 0.0031874588053969988774 0.0070831103064326527904 0.036207692654786155506 -0.22215149424751742813 -0.22215149424751745588 -0.023368457310866397325 -0.016982019644836515021 0.0087602818907725546471 -0.057181745623412168211 0.010250771227659803003 0.0075330609590247669949 0.0055738596091050897352 -0.031317801287964776302 -0.031317801287964769363 -0.075616548136902161925 -0.075501348663351786072 0.072019344596030335226 0.02296378020224346117 0.079553647225177839819 0.064665736996258188496 0.0076320712924512141076 -0.022127977959180904904 -0.022127977959180863271 0.0010220799123953911835 -0.012695533604956735912 0.1072119304445001281 0.073858820920186266101 0.091204964821527637064 0.10760779085466752603 -0.00023363418998783723642 -0.0065814064416075358441 -0.0065814064416077093164 0.039290347410548910612 0.021164718948258394449;-0.0028944149030222616689 -0.0012842206197145695709 0.00027700643044711886374 -0.0011194037142495184053 0.0027684465809084549473 -0.005897635372758927054 -0.0010863567269014885643 -0.00069551223567159532139 -0.0010699392869638816965 -0.0010608444210874288377 -0.0007633769366817397305 -0.00082468836551096943478 -0.00082468836551094048658 -0.00078171932540140411962 -0.001005580265019582727 -0.00098798300861332425012 5.2294363203161642578e-05 -0.00081385541585040049439 -0.0010576958252266092583 -0.0010320742313961485653 5.7478629332240319995e-05 5.7478629332239249345e-05 0.0011011921219845047151 0.00087125574436148751998 -0.00049832363726461028231 -0.002139746862927143032 -0.00056197159004184673876 0.00057895071292781731791 -0.0029869477294624225371 -0.00018024956440328666831 -0.00018024956440328777961 -0.00027322056346263165873 -0.00193994203155510689 0.0010980628113266915034 -0.00011545604726038111523 0.00083034710036968245161 0.0012564563864227841581 -0.0015587051056882602999 -0.00065305147440267315682 -0.00065305147440266914528 0.00024365860226498869826 0.00022435645737668724218 0.00086352756789927437395 -0.00017012899258654089522 0.00053219844548401046887 0.0011780482424340694633 -0.000931272804554697845 -0.00083059971098792175631 -0.000830599710987927611 -0.0012642998759471652578 -0.0010672275428400099413 0.00085878028582456243743 -0.00022315910135585403039 0.00068192482211751088029 0.00099262117931987032225 0.00090620377476844510278 -0.0021109668928007484061 -0.0021109668928007497071 -0.0019278282511072466782 -0.0017385158664113555763;-0.002592763561300078564 -0.0011500206909494830373 0.0002484121422806104631 -0.0010035961127751642525 0.0024799198783309510732 -0.0052835075070474307388 -0.00097359580378484440657 -0.00062340540251620661649 -0.00095888736605940008695 -0.0009507288835203749934 -0.00068446378991150812025 -0.00073878565195363522441 -0.00073878565195364444013 -0.0007001825311388460522 -0.00090073798697232600272 -0.00088545308490753078887 4.6586608623485984413e-05 -0.0007294506407435890228 -0.00094790100051620775328 -0.00092491326750965263941 5.1495262732620084533e-05 5.1495262732622523987e-05 0.00098673594957449897898 0.00078061257777849505073 -0.00044682507547430522351 -0.0019167969914444479319 -0.00050378929037064163182 0.00051813928493006080819 -0.0026762241455873013798 -0.00016111672731679611164 -0.00016111672732218362066 -0.00024499638199280374552 -0.0017379195439804931249 0.00098332647237828999139 -0.00010378301454409804151 0.00074343852506610834212 0.0011252387222983313651 -0.0013970747996119906552 -0.00058622525426319557328 -0.00058622525426320131955 0.00021789197876753290143 0.0002005438178456946986 0.00077347376857687824645 -0.00015268646519372373318 0.00047661052831538539606 0.0010552658053034342893 -0.00083516673098566157445 -0.00074492297875247909592 -0.00074492297875247465069 -0.0011326987121659832115 -0.0009564784189907069023 0.00076921301801623513314 -0.00020036341154763202517 0.00061067605002278332535 0.00088914617789475345385 0.0008110435221560393336 -0.0018917831419158960982 -0.001891783141915900435 -0.0017274671023390388274 -0.0015579716442366815885;-0.0025020531932637723495 -0.0011096890878811483967 0.00023979531826702658805 -0.00096871480505573428436 0.0023931564265469600951 -0.0050987977183197443626 -0.00093965698631350783997 -0.00060169705452365837041 -0.00092546260259910976837 -0.00091758645127238737133 -0.0006606910924032618343 -0.00071295073108318548182 -0.00071295073108318092817 -0.00067566807125482445176 -0.00086921360579846095647 -0.00085459222610180247525 4.4887253076422711914e-05 -0.00070404170021260185312 -0.00091485546694584462916 -0.00089266210352688195838 4.9695484690368147416e-05 4.9695484690370132861e-05 0.00095229707087247927877 0.00075334452578130301978 -0.00043131002270180740944 -0.0018497498464540658349 -0.00048626769083132576369 0.00049988385658629604612 -0.0025827480256787635308 -0.00015538624827458606312 -0.00015538624828256730899 -0.000236492558256564333 -0.0016771587186303776353 0.0009488435099218915994 -0.00010024915906926315479 0.00071732854475467977464 0.0010857978925500194611 -0.0013484167592991275469 -0.0005660483816223787568 -0.00056604838162237116738 0.00021016813613736439999 0.00019341137252528622145 0.00074639740358187602401 -0.00014742221480981050901 0.00045990275910495423146 0.0010183442144750974243 -0.00080620368252043276853 -0.00071910041939044681922 -0.00071910041939045039709 -0.0010931139168135755192 -0.00092314341207392616381 0.00074228335607981748168 -0.00019347803575780220275 0.00058926244938568243109 0.00085803158681775637279 0.00078247486253652377523 -0.0018258179542711971965 -0.0018258179542712002323 -0.0016671794803596175043 -0.0015036374733382539513;-0.0015795332318963449438 -0.00070004333352801295307 0.00015176330071835572458 -0.00061273158912619925254 0.0015107812957330134847 -0.0032195620122938560688 -0.00059383650304472342801 -0.00038037498197036895145 -0.00058487294271400956398 -0.00057988470462749938054 -0.00041798760308184312613 -0.00045014589117228629616 -0.00045014589117228076673 -0.00042645609223539566969 -0.0005486747324984863174 -0.00054010524265054736699 2.7979352592586920266e-05 -0.0004450326089563458971 -0.00057814979816790256373 -0.00056408764892071383036 3.1381497631668683944e-05 3.1381497631670005315e-05 0.00060160699725448881295 0.00047580021887459950699 -0.00027288946173297564789 -0.0011678097413247040016 -0.0003075139614858562998 0.00031491588021073614254 -0.0016312710782952913671 -9.7612644210491199053e-05 -9.7612644212311669369e-05 -0.00014964569815789925786 -0.0010589993399018234055 0.00059858645617944124511 -6.3788232427853839104e-05 0.00045233051794946421654 0.00068508153853281700957 -0.00085238273331228388719 -0.0003590588168721794266 -0.00035905881687217817977 0.00013215814922216988963 0.00012149962910435080398 0.00047111730891437282381 -9.3466429022954182352e-05 0.00029016475905417106213 0.0006428657466790392962 -0.00051027123682144187242 -0.0004551981693151794725 -0.00045519816931517779199 -0.00069030315851547209127 -0.00058343741930593872973 0.00046850645326537541805 -0.00012278386113035252456 0.00037174786011726133981 0.00054163470411277149074 0.00049297410548572798139 -0.0011537678897946608992 -0.0011537678897946617666 -0.0010532529611745865012 -0.00095013075856802944787;-0.23126242183235942718 -0.10341482309996780087 -0.060169439324703179184 0.22927594181805768803 0.0086318787698762191457 -0.13446600032055466833 -0.11982544426058264198 -0.032613926339970629453 -0.12247137274193488354 -0.11543897953597172246 -0.18391168641758931512 -0.11112571446628302652 -0.11112571446628299876 0.20135769846649492765 0.12530625588179736263 0.018570413015622767861 0.13044254894656950872 0.030329595320758188232 0.010618473293069542393 -0.14293384049126806046 0.026318804665051157704 0.026318804665051126479 0.10909823049022092378 0.093292683230477430056 -0.018686377109651472472 -0.0098828168992227648226 -0.033079860936991306586 0.014098415639121664872 -0.12109776495023684417 -0.14664191282187649668 -0.14664191282136579408 0.055703400637967817599 0.011269084154922637611 -0.035992685211162313286 0.085092089749305752089 -0.02979752475467977238 -0.035387016308108087959 -0.065588883654211102558 0.065830690915035489086 0.065830690915034392741 0.043704158149710604919 0.057105559567629755879 0.053288555538930776345 0.064763856429076449572 0.047136519584900005153 0.062190449125511526596 -0.11177152653934259441 -0.035306975465078944965 -0.035306975465079000476 0.045259039260495043111 0.021341297317518468507 -0.026631208439203812172 -0.024719980708041041501 -0.038083686913938069596 -0.01777005600187397949 -0.017459275539913294423 -0.16776173017786463748 -0.16776173017786452646 -0.016548081911218544271 -0.044405831558393303593;-0.0027364216298751075328 -0.0012139161280059144587 0.0002620417667725785031 -0.0010587852568365327486 0.0026173273790340879918 -0.0055760011611527783223 -0.0010273167290468323588 -0.00065776181008237333964 -0.001011794308883295565 -0.0010031893938652321294 -0.00072207317923140288199 -0.00077969774341869562111 -0.00077969774341869518743 -0.000739010416468647343 -0.00095066594408425636117 -0.00093430071839456637836 4.9293682301954543036e-05 -0.00076966542005767223707 -0.0010002084791922566647 -0.00097596487512563120416 5.4345109385033856365e-05 5.4345109385035177737e-05 0.0010412578534056914602 0.00082378727231939975588 -0.00047136957259047185557 -0.0020229765264548542174 -0.00053151465234309660818 0.00054707948386574078038 -0.0028242274328928542761 -0.00017021342617961173404 -0.00017021342617956207758 -0.00025844861944483070535 -0.0018341371078140764669 0.0010379554372711124587 -0.00010935765399084680519 0.00078481166672218218797 0.0011877178643938371329 -0.0014740846857090119954 -0.00061810387666318112286 -0.00061810387666317938814 0.00023014697867064840258 0.0002118657551652119303 0.00081635827892909856082 -0.00016100578362237942271 0.00050307824793322279081 0.0011137391342146271342 -0.00088097733415054622734 -0.00078576392148482950006 -0.00078576392148482668114 -0.0011953792817626560617 -0.0010092420063384955221 0.00081186557812137362909 -0.00021123955735460710269 0.00064459973987773680829 0.00093842390955434099378 0.00085633155214358258871 -0.001996202269846654876 -0.0019962022698466557434 -0.0018229107854017582383 -0.0016439815097883166833;0.025468728546986327266 0.084616747017661683716 0.0035733280516914698623 0.18153773340151985183 0.09027878758913406021 0.024352833626892545632 0.064266471535010000204 0.052692476917157365923 0.060564548079912766676 0.066320818460185129717 0.0070834977554943608785 0.013310050904545919423 0.013310050904545706052 -0.0045611687213429757959 0.0077519068189236210037 0.054393754032812526023 0.070334282916230658755 0.061714303410672292916 0.045488915954914284356 0.018320381408565712678 0.081289233957641843231 0.08128923395764191262 0.023383968622412980298 0.049827802591336782523 0.096887255795230151079 0.19056726625770714634 0.10645645784103646703 0.053520550468172771452 0.099161499643328168685 0.080024299047547126085 0.080024299047560684683 0.020827336019838205844 0.093340102920075690429 -0.065314460151201833571 0.11749334474767221537 -0.056463223393993296206 -0.068652680588225600822 -0.029209414630832937487 -0.01412728743528890267 -0.014127287435251814282 0.067126162363896360596 0.073000200288004746252 0.065709787825462051547 0.047586819865072911562 0.071827566243129539747 0.059466532084691263449 -0.061886021499217694353 -0.055654047420847771455 -0.05565404742084786166 0.035501237650773294352 -0.0022274008199710277484 0.045250325068080764213 -0.052949862547536197255 0.036648014370283830965 0.042121599886192934159 -0.066213218642486290633 0.01662755561268124474 0.016627555612681518826 -0.18557924526631486284 -0.13875842277356073562;0.0026184817361092002641 0.0011614574425292938792 -0.0002508537056387303817 0.0010134810586631102809 -0.0025045190396427068416 0.0053358736191098403087 0.00098321567293166737753 0.00062955812047090593461 0.00096836150168485874302 0.00096012303369655022534 0.00069120036091878931696 0.00074611012433617484359 0.00074611012433616606156 0.00070713323987680871789 0.00090967601115201377013 0.00089420040400785055432 -4.7069793898563072815e-05 0.00073665235224091327008 0.00095726771564101935299 0.00093405495401545346728 -5.2005494948979785308e-05 -5.2005494948980510368e-05 -0.00099649838802945748216 -0.00078834275469961110922 0.00045122155870568221841 0.0019358059071107691727 0.00050875494026441584871 -0.00052331760465649645314 0.0027027234064645366991 0.00016274329992679322345 0.00016274329992709566164 0.00024740604459808443081 0.0017551456098805057453 -0.00099310467200329358498 0.00010478300988928244324 -0.00075084321148931906613 -0.0011364224346457109122 0.0014108659404400091496 0.0005919391786553096068 0.00059193917865530873944 -0.00022008383386888815108 -0.00020256830978912390793 -0.00078115077047977079117 0.00015417743509277601456 -0.00048134817630433125507 -0.0010657338533112516513 0.00084337322645305912161 0.00075223942769619186327 0.00075223942769619479062 0.0011439209133765771559 0.0009659270008094437629 -0.00077684846128704709324 0.00020231307737770745777 -0.00061674818766972716848 -0.00089796791154542611284 -0.00081914714026394411846 0.0019104811907048168534 0.0019104811907048109988 0.0017445568621634187541 0.0015733730162250472197;0.1655991156561859301 -0.35969445667775507003 -0.22288995901499017438 0.22866755057841192667 -0.0066554362294154205057 0.061638082679915558171 -0.0060348360676317795367 0.015048100085568885328 -0.0060203047635844627802 -0.0041735449117923277898 0.035622834565519380379 -0.058108492592954794076 -0.058108492592953683853 0.060141997556224534305 0.0087674726014612090752 0.021630949741498043531 0.026435857767428103809 0.018574950566810431718 0.024116370626662525511 0.072334006452802523945 -0.099630059962937500551 -0.099630059962937417284 -0.016304141940993679971 -0.049584970437834038903 0.13422347111699017841 0.08593720092149609302 0.12549992402180598638 0.174794189778708281 -0.0085358475929140018024 0.013388958341913212435 0.013388958341910726577 0.17391091370900527147 0.10222581070323633057 -0.058355119828317349173 -0.081845825415578762896 -0.04421440013831140492 -0.06154994395457517864 0.012753352898273158031 0.20240260018666858532 0.20240260018666861308 -0.011809641277701262221 0.0058128490492780869603 0.011195936411190045637 5.8170379752567005381e-05 0.0096120126309088404354 0.015034107084521956821 0.074223816577771495329 0.061608856989056208497 0.061608856989056215436 -0.081226350112540840476 -0.019687542936801080001 -0.11142544703220765012 0.0065028851168246002562 -0.076634961090555439589 -0.12193396430151673404 0.089072550436852859779 0.088828681519675795064 0.088828681519675600775 0.012007207648151267676 0.040241780349096041569;-0.020712726281203006073 0.020053349391649901573 -0.11690299901530150362 0.30120066641237480676 0.2420298381056385506 -0.02198259783761178851 0.14073958719479198742 0.16691990586992214163 0.13340179666166035455 0.14698682133501103642 0.15211726868229213938 -0.026626705960303115317 -0.026626705960301599169 0.054648250187886715512 0.0236318741216445527 0.057148798506273947029 0.11019853368452053877 0.066372442654621999214 0.048621239792724382789 0.10298956386992091927 0.067354055401199389164 0.067354055401199375286 0.10771789692286434792 0.11006061721675050591 -0.033414617225697065828 -0.046869796724533056842 -0.029127899942258492216 -0.032333192526332543704 -0.038768317506925241422 0.010183673167194965195 0.010183673167188524167 -0.0015690149169203771676 -0.008447026151817462955 0.019980280075541159701 -0.07450419278768533049 0.01788512145994754568 0.020240866556623795386 -0.052879246120090671324 0.054344688279293930366 0.05434468827929378465 -0.052919004933638442989 -0.051586132410359059053 0.045409387422800408241 0.081266651813665241599 0.048415238451862158131 0.04277808936000721679 0.19522781389549567765 0.057767774326232521065 0.057767774326232305959 0.077377806219645253738 0.081797055538517654538 -0.010066878421801756308 0.064116546737491203478 0.027461519184343658601 -0.025913000521460314435 0.10290727808505095719 0.27139763364013502756 0.27139763364013502756 -0.0043540517819413608949 0.058838606937442645972;-0.0026893541122618345139 -0.0011929786207507506353 0.00025757854281981460267 -0.001040710564043907313 0.002572307749003734708 -0.0054801741171499555177 -0.0010097197034506580349 -0.00064650861671325756709 -0.00099446395565353428933 -0.0009860052118199392774 -0.00070975644973916938042 -0.00076629385043143938457 -0.00076629385043142637414 -0.00072628841264238451839 -0.00093430737391162041374 -0.00091830018204278811116 4.8404563886644686442e-05 -0.00075649312847334243375 -0.00098307437739080633619 -0.0009592419424150857481 5.3411462449273035757e-05 5.3411462449274560416e-05 0.0010233971525074984921 0.00080964304646499978945 -0.00046333160829448291271 -0.0019881887392585268978 -0.00052243409511797220691 0.00053759362308123336514 -0.0027757410882674384695 -0.00016723007300368085567 -0.00016723007300398922987 -0.00025404329516692157826 -0.0018026140912093555155 0.0010200545099120440686 -0.00010753423164241232774 0.00077125320261942141402 0.0011672451595142365865 -0.0014488603872302298174 -0.00060766973384087286016 -0.00060766973384088044958 0.00022612866120016970341 0.00020815265397005366954 0.00080230727413160710451 -0.00015828252138705241532 0.0004944054231514887366 0.0010945810997805961815 -0.00086597618629667314719 -0.00077239046649413745007 -0.00077239046649413213748 -0.0011748442539206921734 -0.00099195878786154014634 0.00079789051787320926061 -0.00020768004344257531943 0.00063348361337392609244 0.00092227855219889859437 0.0008414875203570947905 -0.001961997736911658477 -0.0019619977369116541402 -0.0017916447020345773952 -0.0016158070192582620062;0.002459621147330394355 0.001090826568897164655 -0.0002357618549287461725 0.0009523897134265914494 -0.0023525706782357817815 0.0050123900056887613422 0.00092377671864664226246 0.00059153868497794921243 0.00090982281678163214739 0.00090207884580599008439 0.00064956442721139510173 0.00070086536212031057703 0.00070086536212029247085 0.0006642015116419161232 0.00085446773026460651982 0.00084015195804882866499 -4.4094895947704720472e-05 0.00069215192263780253752 0.00089939325835840439917 0.00087757183502714102442 -4.8853519686617118936e-05 -4.8853519686619158592e-05 -0.00093618435329937256615 -0.00074058763716899097922 0.00042404814342333077776 0.0018183863659258963155 0.00047806770023677252601 -0.00049134912968018236521 0.0025390165735314287887 0.00015270912720130689223 0.00015270912720139053842 0.00023251220566443856299 0.0016487347957291303806 -0.00093271619997112547966 9.8592554462240654389e-05 -0.00070511863171326212476 -0.0010673511566458375975 0.0013256476608133240924 0.00055659791280847749698 0.00055659791280846437813 -0.00020655880263122536832 -0.00019007925214288581514 -0.0007337323448954683738 0.00014495686778772781103 -0.00045208851238082116072 -0.0010010733072168113457 0.00079264606638918303719 0.00070701247963488597983 0.0007070124796348809925 0.0010745955334723817417 0.00090754541547026740082 -0.00072968698759245335245 0.00019025265524588022624 -0.00057924747772478547662 -0.00084347720730340244605 -0.00076911825838885431676 0.0017949529865839228965 0.0017949529865839170418 0.0016389729484152023176 0.001478214953340558236;0.10957127937938819506 0.16895099169356203594 0.28620770503777381855 -0.0080440492147700673464 -0.0036009987421158152002 0.26117992682027607598 0.15861495659476204656 0.17587606172747496935 0.16611054025552551838 0.15500395644810432971 0.25776053973278428844 0.12589380230684130146 0.12589380230683980266 0.026415907052959899243 0.067898063711151188104 -0.002848905229149623422 -0.041711237127543342174 -0.019411206303884761398 0.013417643667237820482 0.115539139286095216 -0.072668634178608346175 -0.072668634178608346175 0.0704582496916341533 0.011679912763615832652 -0.063630936507460475471 0.030138375080249572846 -0.05769723598430106376 -0.077137996600562558358 0.080724494963340692744 0.018310126722398106097 0.01831012672241935299 0.13307645952995805771 0.10445978560258366297 -0.15821301678138685598 -0.019757179940105371735 -0.15238883361638397296 -0.16366219718691757401 0.0031831798958884961574 0.00038757704096978773563 0.00038757704097041575974 0.10361561039669409112 0.097433776779990946548 0.042786810903779469439 0.094447518697978113944 0.042364568904153951379 0.043533671698127614225 0.18455869479384187648 0.04707379315272911674 0.047073793152715058541 0.098337500945954919862 0.073069344002488087475 -0.055891099399113020052 -0.04029748894187203806 -0.059046896408241837662 -0.050457854923986397711 -0.010497225363369664872 -0.056055494497556410116 -0.056055494497555563571 0.0081920296601710306666 0.0060156578824535292954];

% Layer 2
b2 = 0.022555239551803749759;
LW2_1 = [0.010323870638431095065 -0.011813404850821666164 0.57035559599699781064 0.59824632308478153941 0.0091542701997023960547 0.010089983002643149873 0.44659585429942316726 -0.01089096995927460107 -0.0097567608907983393446 -0.0094156353230729038228 -0.0059451999501629890568 -0.61909311443510306461 -0.010296951017572809894 0.42957250524998064067 0.009853472263515154414 -0.52355953928715248669 -0.62123110191413688508 -0.010119972421906896221 0.0092560570853194752694 0.66854801501191041257];

% Output 1
y1_step1.ymin = -1;
y1_step1.gain = 1.30718954248366;
y1_step1.xoffset = 0;

% ===== SIMULATION ========

% Format Input Arguments
isCellX = iscell(X);
if ~isCellX
    X = {X};
end

% Dimensions
TS = size(X,2); % timesteps
if ~isempty(X)
    Q = size(X{1},1); % samples/series
else
    Q = 0;
end

% Allocate Outputs
Y = cell(1,TS);

% Time loop
for ts=1:TS
    
    % Input 1
    X{1,ts} = X{1,ts}';
    Xp1 = mapminmax_apply(X{1,ts},x1_step1);
    
    % Layer 1
    a1 = tansig_apply(repmat(b1,1,Q) + IW1_1*Xp1);
    
    % Layer 2
    a2 = repmat(b2,1,Q) + LW2_1*a1;
    
    % Output 1
    Y{1,ts} = mapminmax_reverse(a2,y1_step1);
    Y{1,ts} = Y{1,ts}';
end

% Final Delay States
Xf = cell(1,0);
Af = cell(2,0);

% Format Output Arguments
if ~isCellX
    Y = cell2mat(Y);
end
end

% ===== MODULE FUNCTIONS ========

% Map Minimum and Maximum Input Processing Function
function y = mapminmax_apply(x,settings)
y = bsxfun(@minus,x,settings.xoffset);
y = bsxfun(@times,y,settings.gain);
y = bsxfun(@plus,y,settings.ymin);
end

% Sigmoid Symmetric Transfer Function
function a = tansig_apply(n,~)
a = 2 ./ (1 + exp(-2*n)) - 1;
end

% Map Minimum and Maximum Output Reverse-Processing Function
function x = mapminmax_reverse(y,settings)
x = bsxfun(@minus,y,settings.ymin);
x = bsxfun(@rdivide,x,settings.gain);
x = bsxfun(@plus,x,settings.xoffset);
end
